layers 3
layer 0 Dense
11 6
[-0.10375018 -0.07517736 -0.11302656 -0.12136023 -0.06443843 -0.15390834]
[-0.00056701 -0.01853736  0.11175351  0.05672842 -0.5493857   0.0792881 ]
[ 0.02823987 -0.01366685  0.05602057  0.03788736  0.01948517 -0.00450071]
[0.05335196 0.00613151 0.16231513 0.0958612  0.0447476  0.16405274]
[-0.5063578  -0.39474282 -0.382109    0.30546352 -0.48140153 -0.45533636]
[ 0.04696912  0.01925906 -0.1068939   0.10442475 -0.04734606  0.02228649]
[ 0.02975454 -0.01981672 -0.20754802 -0.01586596 -0.00148358 -0.12724154]
[0.0090646  0.03174595 0.04106406 0.00603228 0.0350527  0.0325944 ]
[-0.0041215  -0.03435602 -0.12283732  0.15610333 -0.01741677  0.06122833]
[-0.12450676 -0.12519844  0.14217345  0.78812546 -0.01665162 -0.00578618]
[ 0.01839931 -0.04505559 -0.03726541 -0.01605144  0.02504573 -0.00109116]
[0.57275385 0.4459254  0.45794606 0.21890089 0.2779929  0.42842343]
layer 1 Dense
6 6
[0.47699714 0.4086193  0.4075626  0.409916   0.49232456 0.0019046 ]
[0.3432199  0.34229186 0.35729548 0.33782396 0.35193893 0.01475888]
[ 0.3048709   0.28022987  0.17014834  0.30311814  0.23656785 -0.0422711 ]
[ 0.5610931   0.50367635  0.5069332   0.50299174  0.55360353 -0.04608972]
[ 0.389832    0.4317305   0.36378554  0.42517406  0.39406672 -0.02900545]
[ 0.36837587  0.37111205  0.29653138  0.33232772  0.34461945 -0.00791259]
[-0.06960543 -0.06735603 -0.06355023 -0.06748058 -0.06869932 -0.03406573]
layer 2 Dense
6 1
[-0.3966593]
[-0.4137091]
[-0.35525393]
[-0.4211861]
[-0.428745]
[-0.00804985]
[0.5469016]
